{"Layers": 4, "Weights": [[[-0.1664819843557959, 0.4406489868843162, -0.9997712465905425, -0.39533485473632046, -0.7064882183657739], [-0.8155774315658258, -0.6274795772446582, -0.3088785368106637, -0.20646505153866013, 0.07763346800671389], [-0.1616598716682038, 0.370439000793519, -0.5910954995377622, 0.7562348727818908, -0.9452248136041477], [0.3402583412715802, -0.16539039526574606, 0.11737965700252721, -0.7192261228095325, -0.6037970218302424], [0.6009745560155735, 0.936523151438795, -0.37315164373702514, 0.38464523133862816, 0.7527783045920766], [0.7892059194513127, -0.8299115772604442, -0.921890431702363, -0.6603391608708622, 0.7562850068588263], [-0.8036996155554696, -0.15778474998989567, 0.9157790647974178, 0.06633056994603415, 0.3837542279009467], [-0.37397550332542384, 0.3730018553631673, 0.6692514477812647, -0.9634234453116164, 0.5002886298899349], [0.9766227368276408, 0.4963313087596788, -0.4391120157879226, 0.578558656902977, -0.793547986844716], [-0.19002664163180197, 0.8171910061861911, -0.41277100130625155, -0.4244493228273024, -0.7399428557634447]], [[-0.9596888310725594, 0.35863680310078505, -0.5770118427900303], [-0.4817847818309989, -0.2333363673241083, -1.1556363746233305], [0.1482351816276454, -0.7065428682295551, 0.1786110787775811], [0.39951672004186234, -0.7953311423443483, -0.17188802436086337], [0.3888003154554902, -0.1716414609461947, -0.9000930821078257]], [[-0.5434858473080548, -0.3929876738691923], [-0.7452043737784393, -0.01363146597746421], [-0.27423489503417137, 0.2882335446963702]], [[0.3251644448284526], [0.5813072137626478]]]}